// #### Generated By: http://www.cufonfonts.com ####
/*!
 * The following copyright notice may not be removed under any circumstances.
 * 
 * Copyright:
 * (c) 1997 Ray Larabie. See attached license agreement for more information. If
 * EULA is missing, visit www.larabiefonts.com for an updated version of this font.
 * 
 * Trademark:
 * Yonder Recoil is a trademark of Ray Larabie.
 * 
 * Description:
 * To see more fonts by Ray Larabie, visit Typodermic.com and LarabieFonts.com
 * 
 * Manufacturer:
 * Ray Larabie
 * 
 * Designer:
 * Ray Larabie
 * 
 * Vendor URL:
 * http://www.larabiefonts.com
 */
Cufon.registerFont({"w":1160,"face":{"font-family":"YonderRecoil-Regular","font-weight":400,"font-stretch":"normal","units-per-em":"1000","panose-1":"0 0 4 0 0 0 0 0 0 0","ascent":"800","descent":"-200","bbox":"-38 -930 1195 205","underline-thickness":"20","underline-position":"-123","unicode-range":"U+0020-U+20AC"},"glyphs":{" ":{"w":600},"!":{"d":"196,-706r0,521r-132,0r0,-521r132,0xm64,-132r132,0r0,132r-132,0r0,-132","w":281},"\"":{"d":"63,-706r132,0r0,266r-132,-133r0,-133xm257,-706r132,0r0,266r-132,-133r0,-133","w":474},"#":{"d":"1064,-514r0,132r-477,0r0,-324r132,0r0,192r345,0xm396,-514r0,-192r132,0r0,324r-478,0r0,-132r346,0xm719,-191r0,191r-132,0r0,-323r477,0r0,132r-345,0xm50,-191r0,-132r478,0r0,323r-132,0r0,-191r-346,0","w":1145},"%":{"d":"791,-573r288,0r-318,191r-287,0xm353,-132r-288,0r316,-191r285,0xm947,-132r132,0r0,132r-132,0r0,-132xm65,-706r132,0r0,133r-132,0r0,-133","w":1164},"&":{"d":"155,-191r0,59r882,0r0,132r-856,0v-85,0,-142,-8,-153,-78v-11,-67,-3,-167,-5,-245r1014,0r0,132r-882,0xm155,-514r295,0r0,-59r-295,0r0,59xm23,-382r0,-165v0,-85,7,-144,76,-153v116,-14,285,-13,405,0v115,13,68,194,78,318r-559,0","w":1117},"'":{"d":"63,-706r132,0r0,266r-132,-133r0,-133","w":280},"(":{"d":"289,-828v-96,135,-157,298,-158,516v0,178,53,350,159,517r-104,0v-190,-318,-191,-713,0,-1033r103,0","w":334},")":{"d":"288,-312v0,217,-54,368,-144,517r-103,0v93,-141,160,-289,160,-517v0,-227,-68,-377,-160,-516r103,0v90,149,144,300,144,516","w":332},"*":{"d":"660,-436r-178,103r178,106r-68,113r-175,-105r0,169r-133,0r0,-169r-180,104r-67,-113r185,-107r-185,-112r69,-113r178,107r0,-170r133,0r0,175r176,-103","w":738},"+":{"d":"484,-514r0,-192r132,0r0,192r456,0r0,132r-1014,0r0,-132r426,0xm58,-191r0,-132r1014,0r0,132r-456,0r0,191r-132,0r0,-191r-426,0","w":1152},",":{"d":"69,-132r132,0r0,264r-132,-132r0,-132","w":284},"-":{"d":"467,-424r0,132r-447,0r0,-132r447,0","w":488,"k":{"v":227}},".":{"d":"71,-132r132,0r0,132r-132,0r0,-132","w":287},"\/":{"d":"729,-573r287,0r-316,191r-288,0xm290,-132r-287,0r316,-191r286,0","w":1102},"0":{"d":"934,-573r-750,0r0,191r-132,0v6,-101,-21,-238,30,-294v26,-29,70,-29,129,-30r696,0v85,0,141,9,153,78v12,66,4,167,6,246r-132,0r0,-191xm934,-323r132,0v-6,101,21,238,-30,294v-26,28,-70,28,-129,29r-696,0v-84,0,-141,-8,-153,-78v-11,-67,-4,-166,-6,-245r132,0r0,191r750,0r0,-191","w":1150},"1":{"d":"313,-323r0,323r-133,0r0,-323r133,0xm55,-706v107,4,239,-23,253,79v10,67,3,167,5,245r-133,0r0,-191r-125,0r0,-133","w":396},"2":{"d":"62,-382v7,-130,14,-132,159,-132r723,0r0,-59r-882,0r0,-133r855,0v85,0,141,10,153,79v11,67,4,167,6,245r-1014,0xm194,-191r0,59r882,0r0,132r-855,0v-85,0,-141,-9,-153,-78v-12,-66,-4,-167,-6,-245r1014,0v1,75,-1,121,-69,128v-21,3,-51,4,-90,4r-723,0","w":1159},"3":{"d":"67,-192r0,-132r1014,0v-6,101,22,238,-29,294v-26,29,-71,29,-130,30r-855,0r0,-132r882,0r0,-60r-882,0xm949,-514r0,-59r-882,0r0,-133r855,0v85,0,141,9,153,78v12,66,4,167,6,246r-1014,0r0,-132r882,0","w":1163},"4":{"d":"201,-514r750,0r0,-192r132,0r0,324r-1014,0r0,-324r132,0r0,192xm951,-191r-882,0r0,-132r1014,0r0,323r-132,0r0,-191","w":1167},"5":{"d":"905,-514v83,2,144,-5,155,63v2,17,3,40,3,69r-1014,0r0,-324r1014,0r0,133r-882,0r0,59r724,0xm208,-191v-83,-2,-145,6,-156,-62v-2,-17,-3,-41,-3,-70r1014,0v-6,100,21,236,-29,293v-25,29,-70,29,-129,30r-856,0r0,-132r882,0r0,-59r-723,0","w":1148},"6":{"d":"907,-514v81,4,144,-6,155,62v2,17,3,41,3,70r-1014,0v6,-101,-22,-238,29,-294v26,-29,71,-29,130,-30r855,0r0,133r-882,0r0,59r724,0xm183,-132r750,0r0,-59r-750,0r0,59xm1065,-323v-6,101,21,236,-30,293v-25,28,-70,29,-128,30r-697,0v-85,0,-141,-9,-153,-78v-12,-66,-4,-167,-6,-245r1014,0","w":1151},"7":{"d":"926,-573r-882,0r0,-133r856,0v84,0,143,5,153,74v10,70,3,170,5,250r-132,0r0,-191xm1058,-323r0,323r-132,0r0,-323r132,0","w":1143},"8":{"d":"943,-573r-750,0r0,59r750,0r0,-59xm1075,-547v-1,151,0,165,-132,165r-723,0v-86,0,-143,-10,-154,-81v-10,-65,-11,-177,30,-210v32,-26,78,-33,141,-33r679,0v85,0,142,10,154,79v4,21,5,47,5,80xm943,-191r-750,0r0,59r750,0r0,-59xm998,-317v93,9,83,144,72,235v-8,72,-68,82,-154,82r-696,0v-85,0,-142,-9,-153,-78v-10,-64,-13,-180,23,-215v28,-27,71,-29,130,-30r696,0v34,0,61,4,82,6","w":1158},"9":{"d":"221,-191v-83,-2,-145,6,-156,-62v-2,-17,-3,-41,-3,-70r1014,0v-6,101,21,237,-30,293v-26,29,-70,29,-129,30r-855,0r0,-132r882,0r0,-59r-723,0xm944,-573r-750,0r0,59r750,0r0,-59xm62,-382v6,-101,-21,-237,29,-294v25,-29,71,-29,130,-30r696,0v85,0,141,9,153,78v12,66,4,167,6,246r-1014,0","w":1158},":":{"d":"56,-514r132,0r0,132r-132,0r0,-132xm56,-132r132,0r0,132r-132,0r0,-132","w":269},";":{"d":"55,-514r132,0r0,132r-132,0r0,-132xm55,-132r132,0r0,264r-132,-132r0,-132","w":268},"<":{"d":"374,-183r0,164r-323,-232r0,-195r323,-232r0,173r-191,124r0,66","w":460},"=":{"d":"1068,-514r0,132r-1014,0r0,-132r1014,0xm54,-191r0,-132r1014,0r0,132r-1014,0","w":1149},">":{"d":"236,-315r0,-66r-192,-124r0,-173r324,232r0,195r-324,232r0,-164","w":449},"?":{"d":"52,-382v7,-130,14,-132,159,-132r723,0r0,-59r-882,0r0,-133r855,0v85,0,141,9,153,78v12,66,4,167,6,246r-1014,0xm1066,-323v1,75,-1,121,-69,128v-21,3,-51,4,-90,4r-855,0r0,-132r1014,0xm52,-132r132,0r0,132r-132,0r0,-132","w":1149},"@":{"d":"187,-334v-11,-98,97,-138,167,-93r5,-18r47,0r0,140v0,32,14,48,42,48v40,0,66,-55,65,-111v-3,-145,-64,-235,-211,-235v-144,0,-215,98,-216,248v-1,153,64,243,193,265r-8,64v-164,-26,-248,-145,-248,-330v0,-185,101,-308,279,-308v181,0,276,101,273,292v-2,90,-33,166,-128,167v-43,0,-71,-16,-84,-47v-64,54,-186,13,-176,-82xm240,-334v-7,63,88,68,114,28r0,-64v-30,-38,-123,-27,-114,36","w":603},"A":{"d":"939,-191r-750,0r0,191r-132,0r0,-323r1014,0r0,323r-132,0r0,-191xm189,-514r750,0r0,-59r-750,0r0,59xm57,-382v6,-101,-21,-237,29,-294v25,-29,71,-29,130,-30r696,0v85,0,141,9,153,78v12,66,4,167,6,246r-1014,0","w":1153},"B":{"d":"926,-191r-750,0r0,59r750,0r0,-59xm1058,-323v-6,100,21,236,-29,293v-25,29,-70,29,-129,30r-697,0v-85,0,-141,-9,-153,-78v-12,-66,-4,-167,-6,-245r1014,0xm176,-706r0,192r724,0v82,2,144,-6,155,62v2,17,3,41,3,70r-1014,0r0,-324r132,0","w":1139},"C":{"d":"186,-573r0,191r-132,0v6,-101,-21,-238,30,-294v26,-29,70,-29,129,-30r855,0r0,133r-882,0xm1068,-132r0,132r-855,0v-85,0,-141,-9,-153,-78v-12,-66,-4,-167,-6,-245r132,0r0,191r882,0","w":1153},"D":{"d":"188,-132r750,0r0,-59r-750,0r0,59xm1070,-323v-6,101,21,237,-30,293v-26,29,-70,29,-129,30r-696,0v-84,0,-141,-8,-153,-78v-11,-67,-4,-166,-6,-245r1014,0xm1070,-706r0,324r-1014,0v0,-74,-2,-121,66,-128v22,-3,53,-4,93,-4r723,0r0,-192r132,0","w":1154},"E":{"d":"190,-192r0,60r882,0r0,132r-855,0v-85,0,-141,-9,-153,-78v-12,-66,-4,-167,-6,-246r1014,0r0,132r-882,0xm1072,-514r0,132r-1014,0v6,-101,-21,-238,30,-294v26,-29,70,-29,129,-30r855,0r0,133r-882,0r0,59r882,0","w":1156},"F":{"d":"1060,-514r0,132r-1014,0v6,-101,-21,-237,29,-294v25,-29,71,-29,130,-30r855,0r0,133r-882,0r0,59r882,0xm1063,-323r0,132r-882,0r0,191r-132,0r0,-323r1014,0","w":1144},"G":{"d":"216,-191v-83,-2,-145,6,-156,-62v-2,-17,-3,-41,-3,-70r1014,0v-6,101,22,237,-29,293v-26,29,-71,29,-130,30r-855,0r0,-132r882,0r0,-59r-723,0xm939,-573r-750,0r0,59r750,0r0,-59xm57,-382v6,-101,-22,-238,29,-294v26,-29,71,-29,130,-30r696,0v85,0,141,9,153,78v12,66,4,167,6,246r-1014,0","w":1153},"H":{"d":"940,-706r132,0r0,324r-1014,0r0,-324r132,0r0,192r750,0r0,-192xm940,-191r-750,0r0,191r-132,0r0,-323r1014,0r0,323r-132,0r0,-191","w":1156},"I":{"d":"190,-706r0,324r-132,0r0,-324r132,0xm190,-323r0,323r-132,0r0,-323r132,0","w":275},"J":{"d":"927,-706r132,0r0,324r-132,0r0,-324xm927,-132r0,-191r132,0v-6,100,21,236,-29,293v-25,29,-70,29,-129,30r-856,0r0,-132r882,0","w":1145},"K":{"d":"797,0r-299,-191r-322,0r0,191r-132,0r0,-323r500,0r514,323r-261,0xm1058,-707r-514,324r-500,0r0,-324r132,0r0,192r322,0r299,-192r261,0","w":1095},"L":{"d":"183,-382r-132,0r0,-324r132,0r0,324xm1065,-132r0,132r-1014,0r0,-323r132,0r0,191r882,0","w":1149},"M":{"d":"1182,0r-132,0r0,-323r132,0r0,323xm685,-382r-132,0r0,-191r-364,0r0,191r-132,0r0,-324r966,0v84,-1,140,12,153,80v13,66,4,166,6,244r-132,0r0,-191r-365,0r0,191xm685,0r-132,0r0,-323r132,0r0,323xm189,0r-132,0r0,-323r132,0r0,323","w":1264},"N":{"d":"943,-573r-750,0r0,191r-132,0r0,-324r855,0v85,-1,139,9,152,77v12,66,5,168,7,247r-132,0r0,-191xm193,-323r0,323r-132,0r0,-323r132,0xm1075,-323r0,323r-132,0r0,-323r132,0","w":1157},"O":{"d":"941,-573r-750,0r0,191r-132,0v6,-101,-22,-238,29,-294v26,-29,71,-29,130,-30r696,0v85,0,142,10,154,79v11,67,3,167,5,245r-132,0r0,-191xm941,-323r132,0r0,164v0,85,-8,140,-77,153v-21,4,-48,6,-82,6r-696,0v-84,0,-141,-8,-153,-78v-11,-67,-4,-166,-6,-245r132,0r0,191r750,0r0,-191","w":1156},"P":{"d":"936,-573r-750,0r0,59r750,0r0,-59xm54,-382r0,-324r855,0v85,0,141,10,153,79v11,67,4,167,6,245r-1014,0xm54,0r0,-323r1014,0v1,75,-1,121,-69,128v-21,3,-51,4,-90,4r-723,0r0,191r-132,0","w":1151},"Q":{"d":"181,-514r750,0r0,-59r-750,0r0,59xm49,-382v6,-101,-22,-238,29,-294v26,-29,71,-29,130,-30r697,0v85,0,140,10,152,79v12,67,4,167,6,245r-1014,0xm931,0r0,-191r-723,0v-83,-2,-145,6,-156,-62v-2,-17,-3,-41,-3,-70r1014,0r0,323r-132,0","w":1147},"R":{"d":"939,-573r-750,0r0,59r750,0r0,-59xm57,-382r0,-324r855,0v85,0,142,10,154,79v11,67,3,167,5,245r-1014,0xm810,0r-299,-191r-322,0r0,191r-132,0r0,-323r501,0r513,323r-261,0","w":1154},"S":{"d":"910,-514v82,5,146,-7,156,62v2,17,3,41,3,70r-1014,0v6,-101,-22,-238,29,-294v26,-29,71,-29,130,-30r855,0r0,133r-882,0r0,59r723,0xm214,-191v-83,-2,-145,5,-156,-63v-2,-17,-3,-40,-3,-69r1014,0r0,164v1,85,-9,140,-77,153v-21,4,-48,6,-82,6r-855,0r0,-132r882,0r0,-59r-723,0","w":1154},"T":{"d":"550,-573r0,573r-133,0r0,-706r324,0r0,133r-191,0xm227,-573r-192,0r0,-133r325,0r0,706r-133,0r0,-573","w":826},"U":{"d":"186,-132r750,0r0,-191r132,0r0,323r-855,0v-84,0,-141,-8,-153,-78v-11,-67,-4,-166,-6,-245r132,0r0,191xm936,-382r0,-324r132,0r0,324r-132,0xm54,-382r0,-324r132,0r0,324r-132,0","w":1152},"V":{"d":"176,-323r0,191r28,0r222,-191r192,0r-368,323r-206,0r0,-323r132,0xm176,-383r-132,0r0,-324r132,0r0,324xm858,-707r200,0r-372,324r-203,0","w":1081,"k":{".":336,"-":265,",":336}},"W":{"d":"64,-706r132,0r0,324r-132,0r0,-324xm561,-323r132,0r0,191r364,0r0,-191r133,0r0,323r-968,0v-85,0,-140,-11,-152,-79v-12,-66,-4,-166,-6,-244r132,0r0,191r365,0r0,-191xm561,-706r132,0r0,324r-132,0r0,-324xm1057,-706r133,0r0,324r-133,0r0,-324","w":1274},"X":{"d":"810,-707r226,0r-408,324r-196,0r-407,-324r226,0r246,192r66,0xm563,-191r-66,0r-246,191r-226,0r407,-323r196,0r408,323r-226,0","w":1094},"Y":{"d":"223,-191v-82,-3,-144,7,-155,-61v-2,-18,-3,-42,-3,-71r1014,0v-6,101,22,237,-29,293v-26,29,-71,29,-130,30r-855,0r0,-132r882,0r0,-59r-724,0xm197,-514r750,0r0,-192r132,0r0,324r-1014,0r0,-324r132,0r0,192","w":1164},"Z":{"d":"788,-573r-726,0r0,-133r1013,0r0,133r-316,191r-289,0xm349,-132r726,0r0,132r-1013,0r0,-132r315,-191r286,0"},"_":{"d":"0,13r432,0r0,107r-432,0r0,-107","w":432},"`":{"d":"-38,-924r100,0r80,142r-56,0","w":229},"a":{"d":"46,-382v7,-130,14,-132,159,-132r723,0r0,-59r-882,0r0,-133r856,0v85,0,141,8,152,78v11,67,4,168,6,246r-1014,0xm928,-191r-750,0r0,59r750,0r0,-59xm1060,-323r0,164v0,85,-7,140,-76,153v-21,4,-48,6,-82,6r-697,0v-85,0,-141,-9,-153,-78v-12,-66,-4,-167,-6,-245r1014,0","w":1142},"b":{"d":"924,-191r-750,0r0,59r750,0r0,-59xm1056,-323v-6,100,21,236,-29,293v-25,29,-70,29,-129,30r-697,0v-84,0,-141,-8,-153,-78v-11,-67,-4,-166,-6,-245r1014,0xm174,-706r0,192r724,0v145,2,150,2,158,132r-1014,0r0,-324r132,0","w":1137},"c":{"d":"209,-573r0,191r-133,0v6,-101,-21,-238,30,-294v26,-29,70,-29,129,-30r856,0r0,133r-882,0xm1091,-132r0,132r-856,0v-85,0,-141,-9,-153,-78v-12,-66,-4,-167,-6,-245r133,0r0,191r882,0","w":1175},"d":{"d":"198,-132r750,0r0,-59r-750,0r0,59xm1080,-323r0,164v1,85,-9,140,-77,153v-21,4,-48,6,-82,6r-697,0v-84,0,-140,-9,-152,-78v-11,-67,-4,-166,-6,-245r1014,0xm1080,-706r0,324r-1014,0v-1,-74,-1,-121,67,-128v21,-3,52,-4,91,-4r724,0r0,-192r132,0"},"e":{"d":"183,-191r0,59r882,0r0,132r-855,0v-85,0,-141,-8,-153,-77v-11,-66,-4,-168,-6,-246r1014,0v0,76,-1,121,-69,128v-21,3,-51,4,-89,4r-724,0xm183,-514r750,0r0,-59r-750,0r0,59xm51,-381v6,-101,-21,-238,29,-295v25,-29,71,-29,130,-30r697,0v84,-1,138,10,151,78v12,66,5,168,7,247r-1014,0","w":1146},"f":{"d":"1054,-514r0,132r-1014,0v6,-101,-21,-238,30,-294v26,-29,70,-29,129,-30r855,0r0,133r-882,0r0,59r882,0xm1057,-323r0,132r-882,0r0,191r-132,0r0,-323r1014,0","w":1138},"g":{"d":"227,-191v-83,-2,-144,5,-155,-63v-2,-17,-3,-40,-3,-69r1014,0v-6,101,22,237,-29,293v-26,29,-71,29,-130,30r-855,0r0,-132r882,0r0,-59r-724,0xm951,-573r-750,0r0,59r750,0r0,-59xm69,-382v6,-101,-21,-237,29,-294v25,-29,70,-29,129,-30r697,0v85,0,141,9,153,78v12,66,4,167,6,246r-1014,0","w":1163},"h":{"d":"945,-706r132,0r0,324r-1014,0r0,-324r132,0r0,192r750,0r0,-192xm945,-191r-750,0r0,191r-132,0r0,-323r1014,0r0,323r-132,0r0,-191","w":1157},"i":{"d":"200,-706r0,324r-132,0r0,-324r132,0xm200,-323r0,323r-132,0r0,-323r132,0","w":280},"j":{"d":"907,-706r132,0r0,324r-132,0r0,-324xm907,-132r0,-191r132,0v-6,101,22,237,-29,293v-26,29,-71,29,-130,30r-855,0r0,-132r882,0","w":1119},"k":{"d":"790,0r-299,-191r-321,0r0,191r-133,0r0,-323r500,0r515,323r-262,0xm1052,-707r-515,324r-500,0r0,-324r133,0r0,192r321,0r299,-192r262,0","w":1136},"l":{"d":"181,-382r-132,0r0,-324r132,0r0,324xm1063,-132r0,132r-1014,0r0,-323r132,0r0,191r882,0","w":1147},"m":{"d":"1188,0r-133,0r0,-323r133,0r0,323xm691,-382r-132,0r0,-191r-365,0r0,191r-132,0r0,-324r967,0v83,0,140,13,153,80v13,66,4,165,6,244r-133,0r0,-191r-364,0r0,191xm691,0r-132,0r0,-323r132,0r0,323xm194,0r-132,0r0,-323r132,0r0,323","w":1268},"n":{"d":"938,-573r-750,0r0,191r-132,0r0,-324r855,0v85,-1,140,9,153,77v12,66,4,168,6,247r-132,0r0,-191xm188,-323r0,323r-132,0r0,-323r132,0xm1070,-323r0,323r-132,0r0,-323r132,0","w":1151},"o":{"d":"948,-573r-750,0r0,191r-132,0r0,-165v0,-85,7,-140,76,-153v21,-4,48,-6,82,-6r697,0v85,0,141,9,153,78v12,66,4,167,6,246r-132,0r0,-191xm948,-323r132,0v-6,101,21,238,-30,294v-26,28,-70,28,-129,29r-697,0v-85,0,-141,-8,-152,-78v-11,-67,-4,-167,-6,-245r132,0r0,191r750,0r0,-191"},"p":{"d":"928,-573r-750,0r0,59r750,0r0,-59xm46,-382r0,-324r856,0v85,0,140,10,152,79v12,67,4,167,6,245r-1014,0xm46,0r0,-323r1014,0v0,75,-1,122,-69,128v-21,3,-51,4,-89,4r-724,0r0,191r-132,0","w":1141},"q":{"d":"198,-514r750,0r0,-59r-750,0r0,59xm66,-382v6,-101,-21,-237,29,-294v25,-29,70,-29,129,-30r697,0v85,0,141,9,153,78v12,66,4,167,6,246r-1014,0xm948,0r0,-191r-724,0v-83,-2,-144,5,-155,-63v-2,-17,-3,-40,-3,-69r1014,0r0,323r-132,0"},"r":{"d":"947,-573r-750,0r0,59r750,0r0,-59xm65,-382r0,-324r855,0v85,0,141,9,153,78v12,66,4,167,6,246r-1014,0xm817,0r-299,-191r-321,0r0,191r-132,0r0,-323r500,0r514,323r-262,0","w":1159},"s":{"d":"916,-514v145,2,151,1,159,132r-1014,0v6,-101,-21,-237,29,-294v25,-29,71,-29,130,-30r855,0r0,133r-882,0r0,59r723,0xm220,-191v-83,-2,-145,6,-156,-62v-2,-17,-3,-41,-3,-70r1014,0v-6,101,22,237,-29,293v-26,29,-71,29,-130,30r-855,0r0,-132r882,0r0,-59r-723,0","w":1155},"t":{"d":"559,-573r0,573r-133,0r0,-706r324,0r0,133r-191,0xm235,-573r-191,0r0,-133r324,0r0,706r-133,0r0,-573","w":834},"u":{"d":"192,-132r750,0r0,-191r132,0r0,323r-855,0v-84,0,-141,-8,-153,-78v-11,-67,-4,-166,-6,-245r132,0r0,191xm942,-382r0,-324r132,0r0,324r-132,0xm60,-382r0,-324r132,0r0,324r-132,0","w":1154},"v":{"d":"1039,-323r0,323r-206,0r-369,-323r193,0r222,191r28,0r0,-191r132,0xm907,-707r132,0r0,324r-132,0r0,-324xm600,-383r-203,0r-372,-324r200,0","w":1119},"w":{"d":"69,-706r132,0r0,324r-132,0r0,-324xm565,-323r133,0r0,191r364,0r0,-191r133,0r0,323r-968,0v-84,0,-138,-11,-151,-79v-12,-66,-5,-166,-7,-244r132,0r0,191r364,0r0,-191xm565,-706r133,0r0,324r-133,0r0,-324xm1062,-706r133,0r0,324r-133,0r0,-324","w":1275},"x":{"d":"834,-707r226,0r-407,324r-196,0r-408,-324r225,0r247,192r67,0xm588,-191r-67,0r-247,191r-225,0r408,-323r196,0r407,323r-226,0","w":1145},"y":{"d":"224,-191v-83,-2,-144,5,-155,-63v-2,-17,-3,-40,-3,-69r1014,0r0,164v1,85,-9,140,-77,153v-21,4,-48,6,-82,6r-855,0r0,-132r882,0r0,-59r-724,0xm198,-514r750,0r0,-192r132,0r0,324r-1014,0r0,-324r132,0r0,192"},"z":{"d":"751,-573r-726,0r0,-133r1014,0r0,133r-318,191r-287,0xm313,-132r726,0r0,132r-1014,0r0,-132r316,-191r285,0","w":1123},"\u00c7":{"d":"667,74v-4,-28,-59,-15,-91,-15r0,-87r62,0r0,43v65,0,97,18,97,55v2,78,-116,67,-188,57r19,-41v23,8,104,9,101,-12xm186,-573r0,191r-132,0v6,-101,-21,-238,30,-294v26,-29,70,-29,129,-30r855,0r0,133r-882,0xm1068,-132r0,132r-855,0v-85,0,-141,-9,-153,-78v-12,-66,-4,-167,-6,-245r132,0r0,191r882,0","w":1153},"\u00d6":{"d":"544,-862v0,36,-32,67,-68,67v-38,0,-66,-30,-66,-67v0,-39,28,-68,66,-68v37,0,68,30,68,68xm746,-862v0,37,-30,67,-67,67v-35,0,-66,-31,-66,-67v0,-38,30,-68,66,-68v38,0,67,29,67,68xm941,-573r-750,0r0,191r-132,0v6,-101,-22,-238,29,-294v26,-29,71,-29,130,-30r696,0v85,0,142,10,154,79v11,67,3,167,5,245r-132,0r0,-191xm941,-323r132,0r0,164v0,85,-8,140,-77,153v-21,4,-48,6,-82,6r-696,0v-84,0,-141,-8,-153,-78v-11,-67,-4,-166,-6,-245r132,0r0,191r750,0r0,-191","w":1156},"\u00dc":{"d":"542,-862v0,36,-32,67,-68,67v-38,0,-66,-30,-66,-67v0,-39,28,-68,66,-68v37,0,68,30,68,68xm744,-862v0,37,-30,67,-67,67v-35,0,-66,-31,-66,-67v0,-38,30,-68,66,-68v38,0,67,29,67,68xm186,-132r750,0r0,-191r132,0r0,323r-855,0v-84,0,-141,-8,-153,-78v-11,-67,-4,-166,-6,-245r132,0r0,191xm936,-382r0,-324r132,0r0,324r-132,0xm54,-382r0,-324r132,0r0,324r-132,0","w":1152},"\u00e7":{"d":"678,74v-4,-28,-59,-15,-91,-15r0,-87r62,0r0,43v65,0,97,18,97,55v2,78,-116,67,-188,57r19,-41v23,8,104,9,101,-12xm209,-573r0,191r-133,0v6,-101,-21,-238,30,-294v26,-29,70,-29,129,-30r856,0r0,133r-882,0xm1091,-132r0,132r-856,0v-85,0,-141,-9,-153,-78v-12,-66,-4,-167,-6,-245r133,0r0,191r882,0","w":1175},"\u00f6":{"d":"546,-862v0,36,-32,67,-68,67v-38,0,-66,-30,-66,-67v0,-39,28,-68,66,-68v37,0,68,30,68,68xm748,-862v0,37,-30,67,-67,67v-35,0,-66,-31,-66,-67v0,-38,30,-68,66,-68v38,0,67,29,67,68xm948,-573r-750,0r0,191r-132,0r0,-165v0,-85,7,-140,76,-153v21,-4,48,-6,82,-6r697,0v85,0,141,9,153,78v12,66,4,167,6,246r-132,0r0,-191xm948,-323r132,0v-6,101,21,238,-30,294v-26,28,-70,28,-129,29r-697,0v-85,0,-141,-8,-152,-78v-11,-67,-4,-167,-6,-245r132,0r0,191r750,0r0,-191"},"\u00fc":{"d":"543,-862v0,36,-32,67,-68,67v-38,0,-66,-30,-66,-67v0,-39,28,-68,66,-68v37,0,68,30,68,68xm745,-862v0,37,-30,67,-67,67v-35,0,-66,-31,-66,-67v0,-38,30,-68,66,-68v38,0,67,29,67,68xm192,-132r750,0r0,-191r132,0r0,323r-855,0v-84,0,-141,-8,-153,-78v-11,-67,-4,-166,-6,-245r132,0r0,191xm942,-382r0,-324r132,0r0,324r-132,0xm60,-382r0,-324r132,0r0,324r-132,0","w":1154},"\u20ac":{"d":"928,-514r-131,132r-739,0v6,-101,-21,-238,30,-294v26,-29,70,-29,129,-30r901,0r-131,133r-797,0r0,59r738,0xm58,-324r682,0r-131,132r-419,0r0,60r882,0r0,132r-855,0v-85,0,-141,-9,-153,-78v-12,-66,-4,-167,-6,-246","w":1156},"\u00a0":{"w":600}}});


